digraph Tree {
node [shape=box] ;
0 [label="marital-status= Married-civ-spouse <= 0.5\nentropy = 0.7964\nsamples = 32562\nvalue = [24721, 7841]"] ;
1 [label="capital-gain=0 <= 0.5\nentropy = 0.3483\nsamples = 17586\nvalue = [16437, 1149]"] ;
0 -> 1 [labeldistance=2.5, labelangle=45, headlabel="True"] ;
2 [label="capital-gain=1 <= 0.5\nentropy = 0.6987\nsamples = 371\nvalue = [70, 301]"] ;
1 -> 2 ;
3 [label="capital-gain=6 <= 0.5\nentropy = 0.172\nsamples = 234\nvalue = [6, 228]"] ;
2 -> 3 ;
4 [label="relationship=NA <= 0.5\nentropy = 0.0405\nsamples = 229\nvalue = [1, 228]"] ;
3 -> 4 ;
5 [label="entropy = 0.0\nsamples = 228\nvalue = [0, 228]"] ;
4 -> 5 ;
6 [label="entropy = 0.0\nsamples = 1\nvalue = [1, 0]"] ;
4 -> 6 ;
7 [label="entropy = 0.0\nsamples = 5\nvalue = [5, 0]"] ;
3 -> 7 ;
8 [label="relationship= Not-in-family <= 0.5\nentropy = 0.9969\nsamples = 137\nvalue = [64, 73]"] ;
2 -> 8 ;
9 [label="native-country= United-States <= 0.5\nentropy = 0.9652\nsamples = 64\nvalue = [39, 25]"] ;
8 -> 9 ;
10 [label="entropy = 0.0\nsamples = 5\nvalue = [0, 5]"] ;
9 -> 10 ;
11 [label="workclass= Self-emp-not-inc <= 0.5\nentropy = 0.9238\nsamples = 59\nvalue = [39, 20]"] ;
9 -> 11 ;
12 [label="occupation= Exec-managerial <= 0.5\nentropy = 0.8524\nsamples = 54\nvalue = [39, 15]"] ;
11 -> 12 ;
13 [label="education= Masters <= 0.5\nentropy = 0.7383\nsamples = 48\nvalue = [38, 10]"] ;
12 -> 13 ;
14 [label="race= Asian-Pac-Islander <= 0.5\nentropy = 0.5436\nsamples = 40\nvalue = [35, 5]"] ;
13 -> 14 ;
15 [label="age=2 <= 0.5\nentropy = 0.4771\nsamples = 39\nvalue = [35, 4]"] ;
14 -> 15 ;
16 [label="entropy = 0.0\nsamples = 21\nvalue = [21, 0]"] ;
15 -> 16 ;
17 [label="entropy = 0.7642\nsamples = 18\nvalue = [14, 4]"] ;
15 -> 17 ;
18 [label="entropy = 0.0\nsamples = 1\nvalue = [0, 1]"] ;
14 -> 18 ;
19 [label="race= White <= 0.5\nentropy = 0.9544\nsamples = 8\nvalue = [3, 5]"] ;
13 -> 19 ;
20 [label="entropy = 0.0\nsamples = 2\nvalue = [0, 2]"] ;
19 -> 20 ;
21 [label="workclass= Local-gov <= 0.5\nentropy = 1.0\nsamples = 6\nvalue = [3, 3]"] ;
19 -> 21 ;
22 [label="entropy = 0.0\nsamples = 2\nvalue = [2, 0]"] ;
21 -> 22 ;
23 [label="entropy = 0.8113\nsamples = 4\nvalue = [1, 3]"] ;
21 -> 23 ;
24 [label="relationship= Unmarried <= 0.5\nentropy = 0.65\nsamples = 6\nvalue = [1, 5]"] ;
12 -> 24 ;
25 [label="entropy = 0.0\nsamples = 1\nvalue = [1, 0]"] ;
24 -> 25 ;
26 [label="entropy = 0.0\nsamples = 5\nvalue = [0, 5]"] ;
24 -> 26 ;
27 [label="entropy = 0.0\nsamples = 5\nvalue = [0, 5]"] ;
11 -> 27 ;
28 [label="occupation= Adm-clerical <= 0.5\nentropy = 0.9272\nsamples = 73\nvalue = [25, 48]"] ;
8 -> 28 ;
29 [label="fnlwgt=0 <= 0.5\nentropy = 0.8366\nsamples = 60\nvalue = [16, 44]"] ;
28 -> 29 ;
30 [label="fnlwgt=2 <= 0.5\nentropy = 0.7444\nsamples = 52\nvalue = [11, 41]"] ;
29 -> 30 ;
31 [label="workclass= Private <= 0.5\nentropy = 0.5714\nsamples = 37\nvalue = [5, 32]"] ;
30 -> 31 ;
32 [label="entropy = 0.0\nsamples = 12\nvalue = [0, 12]"] ;
31 -> 32 ;
33 [label="native-country= England <= 0.5\nentropy = 0.7219\nsamples = 25\nvalue = [5, 20]"] ;
31 -> 33 ;
34 [label="fnlwgt=1 <= 0.5\nentropy = 0.65\nsamples = 24\nvalue = [4, 20]"] ;
33 -> 34 ;
35 [label="entropy = 0.0\nsamples = 5\nvalue = [0, 5]"] ;
34 -> 35 ;
36 [label="entropy = 0.7425\nsamples = 19\nvalue = [4, 15]"] ;
34 -> 36 ;
37 [label="entropy = 0.0\nsamples = 1\nvalue = [1, 0]"] ;
33 -> 37 ;
38 [label="education-num=2 <= 0.5\nentropy = 0.971\nsamples = 15\nvalue = [6, 9]"] ;
30 -> 38 ;
39 [label="entropy = 0.0\nsamples = 2\nvalue = [2, 0]"] ;
38 -> 39 ;
40 [label="education= Bachelors <= 0.5\nentropy = 0.8905\nsamples = 13\nvalue = [4, 9]"] ;
38 -> 40 ;
41 [label="workclass= Self-emp-not-inc <= 0.5\nentropy = 0.684\nsamples = 11\nvalue = [2, 9]"] ;
40 -> 41 ;
42 [label="entropy = 0.469\nsamples = 10\nvalue = [1, 9]"] ;
41 -> 42 ;
43 [label="entropy = 0.0\nsamples = 1\nvalue = [1, 0]"] ;
41 -> 43 ;
44 [label="entropy = 0.0\nsamples = 2\nvalue = [2, 0]"] ;
40 -> 44 ;
45 [label="occupation= Sales <= 0.5\nentropy = 0.9544\nsamples = 8\nvalue = [5, 3]"] ;
29 -> 45 ;
46 [label="education= Some-college <= 0.5\nentropy = 0.65\nsamples = 6\nvalue = [5, 1]"] ;
45 -> 46 ;
47 [label="entropy = 0.0\nsamples = 5\nvalue = [5, 0]"] ;
46 -> 47 ;
48 [label="entropy = 0.0\nsamples = 1\nvalue = [0, 1]"] ;
46 -> 48 ;
49 [label="entropy = 0.0\nsamples = 2\nvalue = [0, 2]"] ;
45 -> 49 ;
50 [label="marital-status= Never-married <= 0.5\nentropy = 0.8905\nsamples = 13\nvalue = [9, 4]"] ;
28 -> 50 ;
51 [label="entropy = 0.0\nsamples = 5\nvalue = [5, 0]"] ;
50 -> 51 ;
52 [label="age=1 <= 0.5\nentropy = 1.0\nsamples = 8\nvalue = [4, 4]"] ;
50 -> 52 ;
53 [label="entropy = 0.0\nsamples = 2\nvalue = [2, 0]"] ;
52 -> 53 ;
54 [label="hours-per-week=0 <= 0.5\nentropy = 0.9183\nsamples = 6\nvalue = [2, 4]"] ;
52 -> 54 ;
55 [label="fnlwgt=1 <= 0.5\nentropy = 0.9183\nsamples = 3\nvalue = [2, 1]"] ;
54 -> 55 ;
56 [label="entropy = 0.0\nsamples = 1\nvalue = [0, 1]"] ;
55 -> 56 ;
57 [label="entropy = 0.0\nsamples = 2\nvalue = [2, 0]"] ;
55 -> 57 ;
58 [label="entropy = 0.0\nsamples = 3\nvalue = [0, 3]"] ;
54 -> 58 ;
59 [label="hours-per-week=0 <= 0.5\nentropy = 0.2832\nsamples = 17215\nvalue = [16367, 848]"] ;
1 -> 59 ;
60 [label="age=2 <= 0.5\nentropy = 0.6221\nsamples = 2265\nvalue = [1914, 351]"] ;
59 -> 60 ;
61 [label="relationship= Not-in-family <= 0.5\nentropy = 0.4879\nsamples = 1565\nvalue = [1399, 166]"] ;
60 -> 61 ;
62 [label="marital-status= Widowed <= 0.5\nentropy = 0.2591\nsamples = 549\nvalue = [525, 24]"] ;
61 -> 62 ;
63 [label="education= Masters <= 0.5\nentropy = 0.2216\nsamples = 534\nvalue = [515, 19]"] ;
62 -> 63 ;
64 [label="race= Asian-Pac-Islander <= 0.5\nentropy = 0.1869\nsamples = 526\nvalue = [511, 15]"] ;
63 -> 64 ;
65 [label="occupation= Exec-managerial <= 0.5\nentropy = 0.1509\nsamples = 507\nvalue = [496, 11]"] ;
64 -> 65 ;
66 [label="native-country= Italy <= 0.5\nentropy = 0.1022\nsamples = 450\nvalue = [444, 6]"] ;
65 -> 66 ;
67 [label="entropy = 0.0882\nsamples = 449\nvalue = [444, 5]"] ;
66 -> 67 ;
68 [label="entropy = 0.0\nsamples = 1\nvalue = [0, 1]"] ;
66 -> 68 ;
69 [label="capital-loss=4 <= 0.5\nentropy = 0.4288\nsamples = 57\nvalue = [52, 5]"] ;
65 -> 69 ;
70 [label="entropy = 0.3712\nsamples = 56\nvalue = [52, 4]"] ;
69 -> 70 ;
71 [label="entropy = 0.0\nsamples = 1\nvalue = [0, 1]"] ;
69 -> 71 ;
72 [label="workclass= Self-emp-not-inc <= 0.5\nentropy = 0.7425\nsamples = 19\nvalue = [15, 4]"] ;
64 -> 72 ;
73 [label="occupation= Prof-specialty <= 0.5\nentropy = 0.5436\nsamples = 16\nvalue = [14, 2]"] ;
72 -> 73 ;
74 [label="entropy = 0.3534\nsamples = 15\nvalue = [14, 1]"] ;
73 -> 74 ;
75 [label="entropy = 0.0\nsamples = 1\nvalue = [0, 1]"] ;
73 -> 75 ;
76 [label="relationship= Own-child <= 0.5\nentropy = 0.9183\nsamples = 3\nvalue = [1, 2]"] ;
72 -> 76 ;
77 [label="entropy = 0.0\nsamples = 2\nvalue = [0, 2]"] ;
76 -> 77 ;
78 [label="entropy = 0.0\nsamples = 1\nvalue = [1, 0]"] ;
76 -> 78 ;
79 [label="marital-status= Divorced <= 0.5\nentropy = 1.0\nsamples = 8\nvalue = [4, 4]"] ;
63 -> 79 ;
80 [label="occupation= Sales <= 0.5\nentropy = 0.7219\nsamples = 5\nvalue = [4, 1]"] ;
79 -> 80 ;
81 [label="entropy = 0.0\nsamples = 4\nvalue = [4, 0]"] ;
80 -> 81 ;
82 [label="entropy = 0.0\nsamples = 1\nvalue = [0, 1]"] ;
80 -> 82 ;
83 [label="entropy = 0.0\nsamples = 3\nvalue = [0, 3]"] ;
79 -> 83 ;
84 [label="education= Bachelors <= 0.5\nentropy = 0.9183\nsamples = 15\nvalue = [10, 5]"] ;
62 -> 84 ;
85 [label="occupation= Sales <= 0.5\nentropy = 0.65\nsamples = 12\nvalue = [10, 2]"] ;
84 -> 85 ;
86 [label="occupation= Exec-managerial <= 0.5\nentropy = 0.4395\nsamples = 11\nvalue = [10, 1]"] ;
85 -> 86 ;
87 [label="entropy = 0.0\nsamples = 9\nvalue = [9, 0]"] ;
86 -> 87 ;
88 [label="education-num=2 <= 0.5\nentropy = 1.0\nsamples = 2\nvalue = [1, 1]"] ;
86 -> 88 ;
89 [label="entropy = 0.0\nsamples = 1\nvalue = [0, 1]"] ;
88 -> 89 ;
90 [label="entropy = 0.0\nsamples = 1\nvalue = [1, 0]"] ;
88 -> 90 ;
91 [label="entropy = 0.0\nsamples = 1\nvalue = [0, 1]"] ;
85 -> 91 ;
92 [label="entropy = 0.0\nsamples = 3\nvalue = [0, 3]"] ;
84 -> 92 ;
93 [label="capital-loss=5 <= 0.5\nentropy = 0.5836\nsamples = 1016\nvalue = [874, 142]"] ;
61 -> 93 ;
94 [label="education-num=1 <= 0.5\nentropy = 0.5678\nsamples = 1009\nvalue = [874, 135]"] ;
93 -> 94 ;
95 [label="education= Some-college <= 0.5\nentropy = 0.658\nsamples = 670\nvalue = [556, 114]"] ;
94 -> 95 ;
96 [label="workclass= State-gov <= 0.5\nentropy = 0.744\nsamples = 478\nvalue = [377, 101]"] ;
95 -> 96 ;
97 [label="education= Doctorate <= 0.5\nentropy = 0.7646\nsamples = 454\nvalue = [353, 101]"] ;
96 -> 97 ;
98 [label="entropy = 0.7416\nsamples = 438\nvalue = [346, 92]"] ;
97 -> 98 ;
99 [label="entropy = 0.9887\nsamples = 16\nvalue = [7, 9]"] ;
97 -> 99 ;
100 [label="entropy = 0.0\nsamples = 24\nvalue = [24, 0]"] ;
96 -> 100 ;
101 [label="occupation= Exec-managerial <= 0.5\nentropy = 0.3573\nsamples = 192\nvalue = [179, 13]"] ;
95 -> 101 ;
102 [label="capital-loss=4 <= 0.5\nentropy = 0.2592\nsamples = 160\nvalue = [153, 7]"] ;
101 -> 102 ;
103 [label="entropy = 0.2318\nsamples = 159\nvalue = [153, 6]"] ;
102 -> 103 ;
104 [label="entropy = 0.0\nsamples = 1\nvalue = [0, 1]"] ;
102 -> 104 ;
105 [label="fnlwgt=4 <= 0.5\nentropy = 0.6962\nsamples = 32\nvalue = [26, 6]"] ;
101 -> 105 ;
106 [label="entropy = 0.6374\nsamples = 31\nvalue = [26, 5]"] ;
105 -> 106 ;
107 [label="entropy = 0.0\nsamples = 1\nvalue = [0, 1]"] ;
105 -> 107 ;
108 [label="workclass= Private <= 0.5\nentropy = 0.3351\nsamples = 339\nvalue = [318, 21]"] ;
94 -> 108 ;
109 [label="occupation= Exec-managerial <= 0.5\nentropy = 0.5965\nsamples = 76\nvalue = [65, 11]"] ;
108 -> 109 ;
110 [label="workclass= Self-emp-not-inc <= 0.5\nentropy = 0.4489\nsamples = 64\nvalue = [58, 6]"] ;
109 -> 110 ;
111 [label="entropy = 0.0\nsamples = 27\nvalue = [27, 0]"] ;
110 -> 111 ;
112 [label="entropy = 0.6395\nsamples = 37\nvalue = [31, 6]"] ;
110 -> 112 ;
113 [label="marital-status= Divorced <= 0.5\nentropy = 0.9799\nsamples = 12\nvalue = [7, 5]"] ;
109 -> 113 ;
114 [label="entropy = 0.8113\nsamples = 8\nvalue = [6, 2]"] ;
113 -> 114 ;
115 [label="entropy = 0.8113\nsamples = 4\nvalue = [1, 3]"] ;
113 -> 115 ;
116 [label="native-country=NA <= 0.5\nentropy = 0.2332\nsamples = 263\nvalue = [253, 10]"] ;
108 -> 116 ;
117 [label="occupation= Prof-specialty <= 0.5\nentropy = 0.217\nsamples = 260\nvalue = [251, 9]"] ;
116 -> 117 ;
118 [label="entropy = 0.2006\nsamples = 256\nvalue = [248, 8]"] ;
117 -> 118 ;
119 [label="entropy = 0.8113\nsamples = 4\nvalue = [3, 1]"] ;
117 -> 119 ;
120 [label="fnlwgt=1 <= 0.5\nentropy = 0.9183\nsamples = 3\nvalue = [2, 1]"] ;
116 -> 120 ;
121 [label="entropy = 0.0\nsamples = 2\nvalue = [2, 0]"] ;
120 -> 121 ;
122 [label="entropy = 0.0\nsamples = 1\nvalue = [0, 1]"] ;
120 -> 122 ;
123 [label="entropy = 0.0\nsamples = 7\nvalue = [0, 7]"] ;
93 -> 123 ;
124 [label="education-num=3 <= 0.5\nentropy = 0.8331\nsamples = 700\nvalue = [515, 185]"] ;
60 -> 124 ;
125 [label="education-num=2 <= 0.5\nentropy = 0.7814\nsamples = 651\nvalue = [500, 151]"] ;
124 -> 125 ;
126 [label="occupation= Tech-support <= 0.5\nentropy = 0.5202\nsamples = 214\nvalue = [189, 25]"] ;
125 -> 126 ;
127 [label="capital-loss=5 <= 0.5\nentropy = 0.4839\nsamples = 210\nvalue = [188, 22]"] ;
126 -> 127 ;
128 [label="capital-loss=4 <= 0.5\nentropy = 0.4567\nsamples = 208\nvalue = [188, 20]"] ;
127 -> 128 ;
129 [label="native-country= England <= 0.5\nentropy = 0.4424\nsamples = 207\nvalue = [188, 19]"] ;
128 -> 129 ;
130 [label="entropy = 0.4277\nsamples = 206\nvalue = [188, 18]"] ;
129 -> 130 ;
131 [label="entropy = 0.0\nsamples = 1\nvalue = [0, 1]"] ;
129 -> 131 ;
132 [label="entropy = 0.0\nsamples = 1\nvalue = [0, 1]"] ;
128 -> 132 ;
133 [label="entropy = 0.0\nsamples = 2\nvalue = [0, 2]"] ;
127 -> 133 ;
134 [label="marital-status= Never-married <= 0.5\nentropy = 0.8113\nsamples = 4\nvalue = [1, 3]"] ;
126 -> 134 ;
135 [label="entropy = 0.0\nsamples = 3\nvalue = [0, 3]"] ;
134 -> 135 ;
136 [label="entropy = 0.0\nsamples = 1\nvalue = [1, 0]"] ;
134 -> 136 ;
137 [label="sex= Female <= 0.5\nentropy = 0.8666\nsamples = 437\nvalue = [311, 126]"] ;
125 -> 137 ;
138 [label="relationship= Own-child <= 0.5\nentropy = 0.9447\nsamples = 229\nvalue = [146, 83]"] ;
137 -> 138 ;
139 [label="workclass= Federal-gov <= 0.5\nentropy = 0.9615\nsamples = 213\nvalue = [131, 82]"] ;
138 -> 139 ;
140 [label="capital-loss=5 <= 0.5\nentropy = 0.9453\nsamples = 201\nvalue = [128, 73]"] ;
139 -> 140 ;
141 [label="entropy = 0.9372\nsamples = 198\nvalue = [128, 70]"] ;
140 -> 141 ;
142 [label="entropy = 0.0\nsamples = 3\nvalue = [0, 3]"] ;
140 -> 142 ;
143 [label="capital-loss=0 <= 0.5\nentropy = 0.8113\nsamples = 12\nvalue = [3, 9]"] ;
139 -> 143 ;
144 [label="entropy = 0.0\nsamples = 2\nvalue = [2, 0]"] ;
143 -> 144 ;
145 [label="entropy = 0.469\nsamples = 10\nvalue = [1, 9]"] ;
143 -> 145 ;
146 [label="marital-status= Married-spouse-absent <= 0.5\nentropy = 0.3373\nsamples = 16\nvalue = [15, 1]"] ;
138 -> 146 ;
147 [label="entropy = 0.0\nsamples = 15\nvalue = [15, 0]"] ;
146 -> 147 ;
148 [label="entropy = 0.0\nsamples = 1\nvalue = [0, 1]"] ;
146 -> 148 ;
149 [label="occupation= Exec-managerial <= 0.5\nentropy = 0.7352\nsamples = 208\nvalue = [165, 43]"] ;
137 -> 149 ;
150 [label="fnlwgt=0 <= 0.5\nentropy = 0.6447\nsamples = 146\nvalue = [122, 24]"] ;
149 -> 150 ;
151 [label="marital-status= Married-spouse-absent <= 0.5\nentropy = 0.715\nsamples = 117\nvalue = [94, 23]"] ;
150 -> 151 ;
152 [label="entropy = 0.7007\nsamples = 116\nvalue = [94, 22]"] ;
151 -> 152 ;
153 [label="entropy = 0.0\nsamples = 1\nvalue = [0, 1]"] ;
151 -> 153 ;
154 [label="workclass= Federal-gov <= 0.5\nentropy = 0.2164\nsamples = 29\nvalue = [28, 1]"] ;
150 -> 154 ;
155 [label="entropy = 0.0\nsamples = 26\nvalue = [26, 0]"] ;
154 -> 155 ;
156 [label="entropy = 0.9183\nsamples = 3\nvalue = [2, 1]"] ;
154 -> 156 ;
157 [label="education= Some-college <= 0.5\nentropy = 0.889\nsamples = 62\nvalue = [43, 19]"] ;
149 -> 157 ;
158 [label="workclass= Private <= 0.5\nentropy = 0.9881\nsamples = 39\nvalue = [22, 17]"] ;
157 -> 158 ;
159 [label="entropy = 0.65\nsamples = 18\nvalue = [15, 3]"] ;
158 -> 159 ;
160 [label="entropy = 0.9183\nsamples = 21\nvalue = [7, 14]"] ;
158 -> 160 ;
161 [label="relationship= Not-in-family <= 0.5\nentropy = 0.4262\nsamples = 23\nvalue = [21, 2]"] ;
157 -> 161 ;
162 [label="entropy = 0.0\nsamples = 10\nvalue = [10, 0]"] ;
161 -> 162 ;
163 [label="entropy = 0.6194\nsamples = 13\nvalue = [11, 2]"] ;
161 -> 163 ;
164 [label="occupation= Prof-specialty <= 0.5\nentropy = 0.8886\nsamples = 49\nvalue = [15, 34]"] ;
124 -> 164 ;
165 [label="workclass= Self-emp-not-inc <= 0.5\nentropy = 0.3534\nsamples = 15\nvalue = [1, 14]"] ;
164 -> 165 ;
166 [label="entropy = 0.0\nsamples = 13\nvalue = [0, 13]"] ;
165 -> 166 ;
167 [label="fnlwgt=1 <= 0.5\nentropy = 1.0\nsamples = 2\nvalue = [1, 1]"] ;
165 -> 167 ;
168 [label="entropy = 0.0\nsamples = 1\nvalue = [1, 0]"] ;
167 -> 168 ;
169 [label="entropy = 0.0\nsamples = 1\nvalue = [0, 1]"] ;
167 -> 169 ;
170 [label="workclass= Self-emp-not-inc <= 0.5\nentropy = 0.9774\nsamples = 34\nvalue = [14, 20]"] ;
164 -> 170 ;
171 [label="capital-loss=0 <= 0.5\nentropy = 1.0\nsamples = 28\nvalue = [14, 14]"] ;
170 -> 171 ;
172 [label="entropy = 0.0\nsamples = 4\nvalue = [0, 4]"] ;
171 -> 172 ;
173 [label="workclass= Federal-gov <= 0.5\nentropy = 0.9799\nsamples = 24\nvalue = [14, 10]"] ;
171 -> 173 ;
174 [label="workclass= State-gov <= 0.5\nentropy = 0.9457\nsamples = 22\nvalue = [14, 8]"] ;
173 -> 174 ;
175 [label="entropy = 0.8113\nsamples = 16\nvalue = [12, 4]"] ;
174 -> 175 ;
176 [label="entropy = 0.9183\nsamples = 6\nvalue = [2, 4]"] ;
174 -> 176 ;
177 [label="entropy = 0.0\nsamples = 2\nvalue = [0, 2]"] ;
173 -> 177 ;
178 [label="entropy = 0.0\nsamples = 6\nvalue = [0, 6]"] ;
170 -> 178 ;
179 [label="relationship= Own-child <= 0.5\nentropy = 0.2104\nsamples = 14950\nvalue = [14453, 497]"] ;
59 -> 179 ;
180 [label="education-num=1 <= 0.5\nentropy = 0.2678\nsamples = 10332\nvalue = [9860, 472]"] ;
179 -> 180 ;
181 [label="education-num=3 <= 0.5\nentropy = 0.3558\nsamples = 5750\nvalue = [5363, 387]"] ;
180 -> 181 ;
182 [label="age=2 <= 0.5\nentropy = 0.3285\nsamples = 5624\nvalue = [5285, 339]"] ;
181 -> 182 ;
183 [label="education= Masters <= 0.5\nentropy = 0.2468\nsamples = 3781\nvalue = [3626, 155]"] ;
182 -> 183 ;
184 [label="education= Bachelors <= 0.5\nentropy = 0.2205\nsamples = 3565\nvalue = [3439, 126]"] ;
183 -> 184 ;
185 [label="workclass= Federal-gov <= 0.5\nentropy = 0.1646\nsamples = 2476\nvalue = [2416, 60]"] ;
184 -> 185 ;
186 [label="entropy = 0.1483\nsamples = 2403\nvalue = [2352, 51]"] ;
185 -> 186 ;
187 [label="entropy = 0.5387\nsamples = 73\nvalue = [64, 9]"] ;
185 -> 187 ;
188 [label="capital-loss=4 <= 0.5\nentropy = 0.3298\nsamples = 1089\nvalue = [1023, 66]"] ;
184 -> 188 ;
189 [label="entropy = 0.3137\nsamples = 1078\nvalue = [1017, 61]"] ;
188 -> 189 ;
190 [label="entropy = 0.994\nsamples = 11\nvalue = [6, 5]"] ;
188 -> 190 ;
191 [label="workclass= State-gov <= 0.5\nentropy = 0.569\nsamples = 216\nvalue = [187, 29]"] ;
183 -> 191 ;
192 [label="occupation= Exec-managerial <= 0.5\nentropy = 0.6306\nsamples = 183\nvalue = [154, 29]"] ;
191 -> 192 ;
193 [label="entropy = 0.5167\nsamples = 147\nvalue = [130, 17]"] ;
192 -> 193 ;
194 [label="entropy = 0.9183\nsamples = 36\nvalue = [24, 12]"] ;
192 -> 194 ;
195 [label="entropy = 0.0\nsamples = 33\nvalue = [33, 0]"] ;
191 -> 195 ;
196 [label="occupation= Exec-managerial <= 0.5\nentropy = 0.4685\nsamples = 1843\nvalue = [1659, 184]"] ;
182 -> 196 ;
197 [label="occupation= Prof-specialty <= 0.5\nentropy = 0.4039\nsamples = 1553\nvalue = [1428, 125]"] ;
196 -> 197 ;
198 [label="education-num=0 <= 0.5\nentropy = 0.317\nsamples = 1150\nvalue = [1084, 66]"] ;
197 -> 198 ;
199 [label="entropy = 0.3478\nsamples = 1012\nvalue = [946, 66]"] ;
198 -> 199 ;
200 [label="entropy = 0.0\nsamples = 138\nvalue = [138, 0]"] ;
198 -> 200 ;
201 [label="sex= Male <= 0.5\nentropy = 0.6008\nsamples = 403\nvalue = [344, 59]"] ;
197 -> 201 ;
202 [label="entropy = 0.4997\nsamples = 282\nvalue = [251, 31]"] ;
201 -> 202 ;
203 [label="entropy = 0.7805\nsamples = 121\nvalue = [93, 28]"] ;
201 -> 203 ;
204 [label="education= Some-college <= 0.5\nentropy = 0.7288\nsamples = 290\nvalue = [231, 59]"] ;
196 -> 204 ;
205 [label="sex= Male <= 0.5\nentropy = 0.8461\nsamples = 183\nvalue = [133, 50]"] ;
204 -> 205 ;
206 [label="entropy = 0.7181\nsamples = 106\nvalue = [85, 21]"] ;
205 -> 206 ;
207 [label="entropy = 0.9556\nsamples = 77\nvalue = [48, 29]"] ;
205 -> 207 ;
208 [label="marital-status= Divorced <= 0.5\nentropy = 0.4165\nsamples = 107\nvalue = [98, 9]"] ;
204 -> 208 ;
209 [label="entropy = 0.684\nsamples = 44\nvalue = [36, 8]"] ;
208 -> 209 ;
210 [label="entropy = 0.1176\nsamples = 63\nvalue = [62, 1]"] ;
208 -> 210 ;
211 [label="sex= Male <= 0.5\nentropy = 0.9587\nsamples = 126\nvalue = [78, 48]"] ;
181 -> 211 ;
212 [label="workclass= State-gov <= 0.5\nentropy = 0.7793\nsamples = 65\nvalue = [50, 15]"] ;
211 -> 212 ;
213 [label="age=2 <= 0.5\nentropy = 0.6122\nsamples = 53\nvalue = [45, 8]"] ;
212 -> 213 ;
214 [label="marital-status= Divorced <= 0.5\nentropy = 0.2423\nsamples = 25\nvalue = [24, 1]"] ;
213 -> 214 ;
215 [label="entropy = 0.0\nsamples = 18\nvalue = [18, 0]"] ;
214 -> 215 ;
216 [label="entropy = 0.5917\nsamples = 7\nvalue = [6, 1]"] ;
214 -> 216 ;
217 [label="workclass= Federal-gov <= 0.5\nentropy = 0.8113\nsamples = 28\nvalue = [21, 7]"] ;
213 -> 217 ;
218 [label="entropy = 0.7063\nsamples = 26\nvalue = [21, 5]"] ;
217 -> 218 ;
219 [label="entropy = 0.0\nsamples = 2\nvalue = [0, 2]"] ;
217 -> 219 ;
220 [label="education= Doctorate <= 0.5\nentropy = 0.9799\nsamples = 12\nvalue = [5, 7]"] ;
212 -> 220 ;
221 [label="entropy = 0.0\nsamples = 3\nvalue = [3, 0]"] ;
220 -> 221 ;
222 [label="fnlwgt=4 <= 0.5\nentropy = 0.7642\nsamples = 9\nvalue = [2, 7]"] ;
220 -> 222 ;
223 [label="entropy = 0.5436\nsamples = 8\nvalue = [1, 7]"] ;
222 -> 223 ;
224 [label="entropy = 0.0\nsamples = 1\nvalue = [1, 0]"] ;
222 -> 224 ;
225 [label="fnlwgt=2 <= 0.5\nentropy = 0.9951\nsamples = 61\nvalue = [28, 33]"] ;
211 -> 225 ;
226 [label="occupation= Adm-clerical <= 0.5\nentropy = 0.9687\nsamples = 53\nvalue = [21, 32]"] ;
225 -> 226 ;
227 [label="workclass= State-gov <= 0.5\nentropy = 0.9526\nsamples = 51\nvalue = [19, 32]"] ;
226 -> 227 ;
228 [label="entropy = 0.9313\nsamples = 49\nvalue = [17, 32]"] ;
227 -> 228 ;
229 [label="entropy = 0.0\nsamples = 2\nvalue = [2, 0]"] ;
227 -> 229 ;
230 [label="entropy = 0.0\nsamples = 2\nvalue = [2, 0]"] ;
226 -> 230 ;
231 [label="occupation= Exec-managerial <= 0.5\nentropy = 0.5436\nsamples = 8\nvalue = [7, 1]"] ;
225 -> 231 ;
232 [label="entropy = 0.0\nsamples = 7\nvalue = [7, 0]"] ;
231 -> 232 ;
233 [label="entropy = 0.0\nsamples = 1\nvalue = [0, 1]"] ;
231 -> 233 ;
234 [label="marital-status= Never-married <= 0.5\nentropy = 0.1332\nsamples = 4582\nvalue = [4497, 85]"] ;
180 -> 234 ;
235 [label="sex= Female <= 0.5\nentropy = 0.1808\nsamples = 2561\nvalue = [2491, 70]"] ;
234 -> 235 ;
236 [label="age=1 <= 0.5\nentropy = 0.2843\nsamples = 828\nvalue = [787, 41]"] ;
235 -> 236 ;
237 [label="occupation= Tech-support <= 0.5\nentropy = 0.3623\nsamples = 478\nvalue = [445, 33]"] ;
236 -> 237 ;
238 [label="occupation= Machine-op-inspct <= 0.5\nentropy = 0.3414\nsamples = 472\nvalue = [442, 30]"] ;
237 -> 238 ;
239 [label="entropy = 0.3669\nsamples = 427\nvalue = [397, 30]"] ;
238 -> 239 ;
240 [label="entropy = 0.0\nsamples = 45\nvalue = [45, 0]"] ;
238 -> 240 ;
241 [label="marital-status= Divorced <= 0.5\nentropy = 1.0\nsamples = 6\nvalue = [3, 3]"] ;
237 -> 241 ;
242 [label="entropy = 0.0\nsamples = 2\nvalue = [2, 0]"] ;
241 -> 242 ;
243 [label="entropy = 0.8113\nsamples = 4\nvalue = [1, 3]"] ;
241 -> 243 ;
244 [label="relationship= Husband <= 0.5\nentropy = 0.1572\nsamples = 350\nvalue = [342, 8]"] ;
236 -> 244 ;
245 [label="workclass= Local-gov <= 0.5\nentropy = 0.1418\nsamples = 349\nvalue = [342, 7]"] ;
244 -> 245 ;
246 [label="entropy = 0.1119\nsamples = 335\nvalue = [330, 5]"] ;
245 -> 246 ;
247 [label="entropy = 0.5917\nsamples = 14\nvalue = [12, 2]"] ;
245 -> 247 ;
248 [label="entropy = 0.0\nsamples = 1\nvalue = [0, 1]"] ;
244 -> 248 ;
249 [label="occupation= Exec-managerial <= 0.5\nentropy = 0.1227\nsamples = 1733\nvalue = [1704, 29]"] ;
235 -> 249 ;
250 [label="relationship= Wife <= 0.5\nentropy = 0.0929\nsamples = 1601\nvalue = [1582, 19]"] ;
249 -> 250 ;
251 [label="age=1 <= 0.5\nentropy = 0.0851\nsamples = 1595\nvalue = [1578, 17]"] ;
250 -> 251 ;
252 [label="entropy = 0.1171\nsamples = 1077\nvalue = [1060, 17]"] ;
251 -> 252 ;
253 [label="entropy = 0.0\nsamples = 518\nvalue = [518, 0]"] ;
251 -> 253 ;
254 [label="occupation= Craft-repair <= 0.5\nentropy = 0.9183\nsamples = 6\nvalue = [4, 2]"] ;
250 -> 254 ;
255 [label="entropy = 0.7219\nsamples = 5\nvalue = [4, 1]"] ;
254 -> 255 ;
256 [label="entropy = 0.0\nsamples = 1\nvalue = [0, 1]"] ;
254 -> 256 ;
257 [label="capital-loss=4 <= 0.5\nentropy = 0.3871\nsamples = 132\nvalue = [122, 10]"] ;
249 -> 257 ;
258 [label="marital-status= Separated <= 0.5\nentropy = 0.3611\nsamples = 131\nvalue = [122, 9]"] ;
257 -> 258 ;
259 [label="entropy = 0.396\nsamples = 115\nvalue = [106, 9]"] ;
258 -> 259 ;
260 [label="entropy = 0.0\nsamples = 16\nvalue = [16, 0]"] ;
258 -> 260 ;
261 [label="entropy = 0.0\nsamples = 1\nvalue = [0, 1]"] ;
257 -> 261 ;
262 [label="sex= Male <= 0.5\nentropy = 0.0632\nsamples = 2021\nvalue = [2006, 15]"] ;
234 -> 262 ;
263 [label="entropy = 0.0\nsamples = 907\nvalue = [907, 0]"] ;
262 -> 263 ;
264 [label="capital-loss=5 <= 0.5\nentropy = 0.103\nsamples = 1114\nvalue = [1099, 15]"] ;
262 -> 264 ;
265 [label="workclass= State-gov <= 0.5\nentropy = 0.0974\nsamples = 1113\nvalue = [1099, 14]"] ;
264 -> 265 ;
266 [label="race= White <= 0.5\nentropy = 0.087\nsamples = 1097\nvalue = [1085, 12]"] ;
265 -> 266 ;
267 [label="entropy = 0.0\nsamples = 214\nvalue = [214, 0]"] ;
266 -> 267 ;
268 [label="entropy = 0.1037\nsamples = 883\nvalue = [871, 12]"] ;
266 -> 268 ;
269 [label="race= Amer-Indian-Eskimo <= 0.5\nentropy = 0.5436\nsamples = 16\nvalue = [14, 2]"] ;
265 -> 269 ;
270 [label="entropy = 0.3534\nsamples = 15\nvalue = [14, 1]"] ;
269 -> 270 ;
271 [label="entropy = 0.0\nsamples = 1\nvalue = [0, 1]"] ;
269 -> 271 ;
272 [label="entropy = 0.0\nsamples = 1\nvalue = [0, 1]"] ;
264 -> 272 ;
273 [label="occupation= Prof-specialty <= 0.5\nentropy = 0.0485\nsamples = 4618\nvalue = [4593, 25]"] ;
179 -> 273 ;
274 [label="capital-loss=4 <= 0.5\nentropy = 0.0351\nsamples = 4346\nvalue = [4330, 16]"] ;
273 -> 274 ;
275 [label="education-num=2 <= 0.5\nentropy = 0.0314\nsamples = 4336\nvalue = [4322, 14]"] ;
274 -> 275 ;
276 [label="occupation= Adm-clerical <= 0.5\nentropy = 0.0057\nsamples = 2223\nvalue = [2222, 1]"] ;
275 -> 276 ;
277 [label="entropy = 0.0\nsamples = 1956\nvalue = [1956, 0]"] ;
276 -> 277 ;
278 [label="fnlwgt=1 <= 0.5\nentropy = 0.0356\nsamples = 267\nvalue = [266, 1]"] ;
276 -> 278 ;
279 [label="entropy = 0.0\nsamples = 153\nvalue = [153, 0]"] ;
278 -> 279 ;
280 [label="age=1 <= 0.5\nentropy = 0.0725\nsamples = 114\nvalue = [113, 1]"] ;
278 -> 280 ;
281 [label="entropy = 0.0\nsamples = 37\nvalue = [37, 0]"] ;
280 -> 281 ;
282 [label="entropy = 0.1\nsamples = 77\nvalue = [76, 1]"] ;
280 -> 282 ;
283 [label="marital-status= Divorced <= 0.5\nentropy = 0.054\nsamples = 2113\nvalue = [2100, 13]"] ;
275 -> 283 ;
284 [label="occupation= Protective-serv <= 0.5\nentropy = 0.0376\nsamples = 2002\nvalue = [1994, 8]"] ;
283 -> 284 ;
285 [label="education= Some-college <= 0.5\nentropy = 0.0299\nsamples = 1964\nvalue = [1958, 6]"] ;
284 -> 285 ;
286 [label="entropy = 0.078\nsamples = 522\nvalue = [517, 5]"] ;
285 -> 286 ;
287 [label="entropy = 0.0083\nsamples = 1442\nvalue = [1441, 1]"] ;
285 -> 287 ;
288 [label="workclass= Local-gov <= 0.5\nentropy = 0.2975\nsamples = 38\nvalue = [36, 2]"] ;
284 -> 288 ;
289 [label="entropy = 0.0\nsamples = 24\nvalue = [24, 0]"] ;
288 -> 289 ;
290 [label="entropy = 0.5917\nsamples = 14\nvalue = [12, 2]"] ;
288 -> 290 ;
291 [label="workclass= Self-emp-inc <= 0.5\nentropy = 0.265\nsamples = 111\nvalue = [106, 5]"] ;
283 -> 291 ;
292 [label="age=3 <= 0.5\nentropy = 0.2254\nsamples = 110\nvalue = [106, 4]"] ;
291 -> 292 ;
293 [label="entropy = 0.1831\nsamples = 108\nvalue = [105, 3]"] ;
292 -> 293 ;
294 [label="entropy = 1.0\nsamples = 2\nvalue = [1, 1]"] ;
292 -> 294 ;
295 [label="entropy = 0.0\nsamples = 1\nvalue = [0, 1]"] ;
291 -> 295 ;
296 [label="education= Bachelors <= 0.5\nentropy = 0.7219\nsamples = 10\nvalue = [8, 2]"] ;
274 -> 296 ;
297 [label="occupation= Craft-repair <= 0.5\nentropy = 0.5033\nsamples = 9\nvalue = [8, 1]"] ;
296 -> 297 ;
298 [label="entropy = 0.0\nsamples = 8\nvalue = [8, 0]"] ;
297 -> 298 ;
299 [label="entropy = 0.0\nsamples = 1\nvalue = [0, 1]"] ;
297 -> 299 ;
300 [label="entropy = 0.0\nsamples = 1\nvalue = [0, 1]"] ;
296 -> 300 ;
301 [label="capital-loss=0 <= 0.5\nentropy = 0.2097\nsamples = 272\nvalue = [263, 9]"] ;
273 -> 301 ;
302 [label="fnlwgt=1 <= 0.5\nentropy = 0.971\nsamples = 5\nvalue = [3, 2]"] ;
301 -> 302 ;
303 [label="entropy = 0.0\nsamples = 2\nvalue = [2, 0]"] ;
302 -> 303 ;
304 [label="sex= Male <= 0.5\nentropy = 0.9183\nsamples = 3\nvalue = [1, 2]"] ;
302 -> 304 ;
305 [label="entropy = 0.0\nsamples = 2\nvalue = [0, 2]"] ;
304 -> 305 ;
306 [label="entropy = 0.0\nsamples = 1\nvalue = [1, 0]"] ;
304 -> 306 ;
307 [label="education= Some-college <= 0.5\nentropy = 0.1751\nsamples = 267\nvalue = [260, 7]"] ;
301 -> 307 ;
308 [label="race= White <= 0.5\nentropy = 0.2164\nsamples = 203\nvalue = [196, 7]"] ;
307 -> 308 ;
309 [label="entropy = 0.0\nsamples = 41\nvalue = [41, 0]"] ;
308 -> 309 ;
310 [label="age=2 <= 0.5\nentropy = 0.2568\nsamples = 162\nvalue = [155, 7]"] ;
308 -> 310 ;
311 [label="workclass= Private <= 0.5\nentropy = 0.2108\nsamples = 150\nvalue = [145, 5]"] ;
310 -> 311 ;
312 [label="entropy = 0.0\nsamples = 48\nvalue = [48, 0]"] ;
311 -> 312 ;
313 [label="entropy = 0.2822\nsamples = 102\nvalue = [97, 5]"] ;
311 -> 313 ;
314 [label="workclass= Local-gov <= 0.5\nentropy = 0.65\nsamples = 12\nvalue = [10, 2]"] ;
310 -> 314 ;
315 [label="entropy = 0.0\nsamples = 7\nvalue = [7, 0]"] ;
314 -> 315 ;
316 [label="entropy = 0.971\nsamples = 5\nvalue = [3, 2]"] ;
314 -> 316 ;
317 [label="entropy = 0.0\nsamples = 64\nvalue = [64, 0]"] ;
307 -> 317 ;
318 [label="capital-gain=0 <= 0.5\nentropy = 0.9918\nsamples = 14976\nvalue = [8284, 6692]"] ;
0 -> 318 [labeldistance=2.5, labelangle=-45, headlabel="False"] ;
319 [label="capital-gain=3 <= 0.5\nentropy = 0.3468\nsamples = 1278\nvalue = [83, 1195]"] ;
318 -> 319 ;
320 [label="capital-gain=19 <= 0.5\nentropy = 0.4336\nsamples = 931\nvalue = [83, 848]"] ;
319 -> 320 ;
321 [label="education= HS-grad <= 0.5\nentropy = 0.4812\nsamples = 799\nvalue = [83, 716]"] ;
320 -> 321 ;
322 [label="capital-gain=8 <= 0.5\nentropy = 0.4067\nsamples = 615\nvalue = [50, 565]"] ;
321 -> 322 ;
323 [label="capital-gain=2 <= 0.5\nentropy = 0.3962\nsamples = 613\nvalue = [48, 565]"] ;
322 -> 323 ;
324 [label="occupation= Craft-repair <= 0.5\nentropy = 0.3734\nsamples = 597\nvalue = [43, 554]"] ;
323 -> 324 ;
325 [label="native-country= Germany <= 0.5\nentropy = 0.3345\nsamples = 534\nvalue = [33, 501]"] ;
324 -> 325 ;
326 [label="education-num=3 <= 0.5\nentropy = 0.3276\nsamples = 533\nvalue = [32, 501]"] ;
325 -> 326 ;
327 [label="entropy = 0.3456\nsamples = 495\nvalue = [32, 463]"] ;
326 -> 327 ;
328 [label="entropy = 0.0\nsamples = 38\nvalue = [0, 38]"] ;
326 -> 328 ;
329 [label="entropy = 0.0\nsamples = 1\nvalue = [1, 0]"] ;
325 -> 329 ;
330 [label="fnlwgt=0 <= 0.5\nentropy = 0.6313\nsamples = 63\nvalue = [10, 53]"] ;
324 -> 330 ;
331 [label="native-country= Vietnam <= 0.5\nentropy = 0.5033\nsamples = 54\nvalue = [6, 48]"] ;
330 -> 331 ;
332 [label="entropy = 0.4508\nsamples = 53\nvalue = [5, 48]"] ;
331 -> 332 ;
333 [label="entropy = 0.0\nsamples = 1\nvalue = [1, 0]"] ;
331 -> 333 ;
334 [label="education= 10th <= 0.5\nentropy = 0.9911\nsamples = 9\nvalue = [4, 5]"] ;
330 -> 334 ;
335 [label="entropy = 0.9544\nsamples = 8\nvalue = [3, 5]"] ;
334 -> 335 ;
336 [label="entropy = 0.0\nsamples = 1\nvalue = [1, 0]"] ;
334 -> 336 ;
337 [label="education= Some-college <= 0.5\nentropy = 0.896\nsamples = 16\nvalue = [5, 11]"] ;
323 -> 337 ;
338 [label="occupation= Transport-moving <= 0.5\nentropy = 0.684\nsamples = 11\nvalue = [2, 9]"] ;
337 -> 338 ;
339 [label="age=4 <= 0.5\nentropy = 0.469\nsamples = 10\nvalue = [1, 9]"] ;
338 -> 339 ;
340 [label="entropy = 0.0\nsamples = 8\nvalue = [0, 8]"] ;
339 -> 340 ;
341 [label="entropy = 1.0\nsamples = 2\nvalue = [1, 1]"] ;
339 -> 341 ;
342 [label="entropy = 0.0\nsamples = 1\nvalue = [1, 0]"] ;
338 -> 342 ;
343 [label="occupation= Transport-moving <= 0.5\nentropy = 0.971\nsamples = 5\nvalue = [3, 2]"] ;
337 -> 343 ;
344 [label="occupation= Exec-managerial <= 0.5\nentropy = 0.8113\nsamples = 4\nvalue = [3, 1]"] ;
343 -> 344 ;
345 [label="entropy = 0.0\nsamples = 2\nvalue = [2, 0]"] ;
344 -> 345 ;
346 [label="entropy = 1.0\nsamples = 2\nvalue = [1, 1]"] ;
344 -> 346 ;
347 [label="entropy = 0.0\nsamples = 1\nvalue = [0, 1]"] ;
343 -> 347 ;
348 [label="entropy = 0.0\nsamples = 2\nvalue = [2, 0]"] ;
322 -> 348 ;
349 [label="occupation= Adm-clerical <= 0.5\nentropy = 0.6786\nsamples = 184\nvalue = [33, 151]"] ;
321 -> 349 ;
350 [label="native-country= Italy <= 0.5\nentropy = 0.71\nsamples = 170\nvalue = [33, 137]"] ;
349 -> 350 ;
351 [label="native-country= Greece <= 0.5\nentropy = 0.7001\nsamples = 169\nvalue = [32, 137]"] ;
350 -> 351 ;
352 [label="workclass= Self-emp-inc <= 0.5\nentropy = 0.6899\nsamples = 168\nvalue = [31, 137]"] ;
351 -> 352 ;
353 [label="capital-gain=4 <= 0.5\nentropy = 0.7219\nsamples = 155\nvalue = [31, 124]"] ;
352 -> 353 ;
354 [label="entropy = 0.7114\nsamples = 154\nvalue = [30, 124]"] ;
353 -> 354 ;
355 [label="entropy = 0.0\nsamples = 1\nvalue = [1, 0]"] ;
353 -> 355 ;
356 [label="entropy = 0.0\nsamples = 13\nvalue = [0, 13]"] ;
352 -> 356 ;
357 [label="entropy = 0.0\nsamples = 1\nvalue = [1, 0]"] ;
351 -> 357 ;
358 [label="entropy = 0.0\nsamples = 1\nvalue = [1, 0]"] ;
350 -> 358 ;
359 [label="entropy = 0.0\nsamples = 14\nvalue = [0, 14]"] ;
349 -> 359 ;
360 [label="entropy = 0.0\nsamples = 132\nvalue = [0, 132]"] ;
320 -> 360 ;
361 [label="entropy = 0.0\nsamples = 347\nvalue = [0, 347]"] ;
319 -> 361 ;
362 [label="education-num=1 <= 0.5\nentropy = 0.9717\nsamples = 13698\nvalue = [8201, 5497]"] ;
318 -> 362 ;
363 [label="education-num=0 <= 0.5\nentropy = 0.9999\nsamples = 8057\nvalue = [3985, 4072]"] ;
362 -> 363 ;
364 [label="education= Some-college <= 0.5\nentropy = 0.9951\nsamples = 7438\nvalue = [3412, 4026]"] ;
363 -> 364 ;
365 [label="capital-loss=3 <= 0.5\nentropy = 0.9578\nsamples = 4828\nvalue = [1833, 2995]"] ;
364 -> 365 ;
366 [label="occupation= Exec-managerial <= 0.5\nentropy = 0.9746\nsamples = 4433\nvalue = [1802, 2631]"] ;
365 -> 366 ;
367 [label="occupation= Prof-specialty <= 0.5\nentropy = 0.9929\nsamples = 3380\nvalue = [1523, 1857]"] ;
366 -> 367 ;
368 [label="occupation= Sales <= 0.5\nentropy = 0.9958\nsamples = 2024\nvalue = [1089, 935]"] ;
367 -> 368 ;
369 [label="age=2 <= 0.5\nentropy = 0.9818\nsamples = 1481\nvalue = [858, 623]"] ;
368 -> 369 ;
370 [label="entropy = 0.9409\nsamples = 844\nvalue = [542, 302]"] ;
369 -> 370 ;
371 [label="entropy = 1.0\nsamples = 637\nvalue = [316, 321]"] ;
369 -> 371 ;
372 [label="education= Assoc-acdm <= 0.5\nentropy = 0.9839\nsamples = 543\nvalue = [231, 312]"] ;
368 -> 372 ;
373 [label="entropy = 0.9721\nsamples = 490\nvalue = [197, 293]"] ;
372 -> 373 ;
374 [label="entropy = 0.9414\nsamples = 53\nvalue = [34, 19]"] ;
372 -> 374 ;
375 [label="education-num=2 <= 0.5\nentropy = 0.9044\nsamples = 1356\nvalue = [434, 922]"] ;
367 -> 375 ;
376 [label="capital-loss=0 <= 0.5\nentropy = 0.7027\nsamples = 362\nvalue = [69, 293]"] ;
375 -> 376 ;
377 [label="entropy = 0.0\nsamples = 20\nvalue = [0, 20]"] ;
376 -> 377 ;
378 [label="entropy = 0.7254\nsamples = 342\nvalue = [69, 273]"] ;
376 -> 378 ;
379 [label="age=2 <= 0.5\nentropy = 0.9485\nsamples = 994\nvalue = [365, 629]"] ;
375 -> 379 ;
380 [label="entropy = 0.9825\nsamples = 502\nvalue = [212, 290]"] ;
379 -> 380 ;
381 [label="entropy = 0.8943\nsamples = 492\nvalue = [153, 339]"] ;
379 -> 381 ;
382 [label="hours-per-week=1 <= 0.5\nentropy = 0.8341\nsamples = 1053\nvalue = [279, 774]"] ;
366 -> 382 ;
383 [label="age=2 <= 0.5\nentropy = 0.9018\nsamples = 636\nvalue = [202, 434]"] ;
382 -> 383 ;
384 [label="capital-loss=4 <= 0.5\nentropy = 0.9835\nsamples = 278\nvalue = [118, 160]"] ;
383 -> 384 ;
385 [label="entropy = 0.9861\nsamples = 274\nvalue = [118, 156]"] ;
384 -> 385 ;
386 [label="entropy = 0.0\nsamples = 4\nvalue = [0, 4]"] ;
384 -> 386 ;
387 [label="capital-loss=2 <= 0.5\nentropy = 0.786\nsamples = 358\nvalue = [84, 274]"] ;
383 -> 387 ;
388 [label="entropy = 0.7748\nsamples = 355\nvalue = [81, 274]"] ;
387 -> 388 ;
389 [label="entropy = 0.0\nsamples = 3\nvalue = [3, 0]"] ;
387 -> 389 ;
390 [label="workclass= Self-emp-not-inc <= 0.5\nentropy = 0.6901\nsamples = 417\nvalue = [77, 340]"] ;
382 -> 390 ;
391 [label="education= Masters <= 0.5\nentropy = 0.6174\nsamples = 379\nvalue = [58, 321]"] ;
390 -> 391 ;
392 [label="entropy = 0.691\nsamples = 281\nvalue = [52, 229]"] ;
391 -> 392 ;
393 [label="entropy = 0.3323\nsamples = 98\nvalue = [6, 92]"] ;
391 -> 393 ;
394 [label="education= Masters <= 0.5\nentropy = 1.0\nsamples = 38\nvalue = [19, 19]"] ;
390 -> 394 ;
395 [label="entropy = 0.9887\nsamples = 32\nvalue = [18, 14]"] ;
394 -> 395 ;
396 [label="entropy = 0.65\nsamples = 6\nvalue = [1, 5]"] ;
394 -> 396 ;
397 [label="education= Assoc-voc <= 0.5\nentropy = 0.3968\nsamples = 395\nvalue = [31, 364]"] ;
365 -> 397 ;
398 [label="education= Assoc-acdm <= 0.5\nentropy = 0.3471\nsamples = 369\nvalue = [24, 345]"] ;
397 -> 398 ;
399 [label="race= Other <= 0.5\nentropy = 0.2968\nsamples = 343\nvalue = [18, 325]"] ;
398 -> 399 ;
400 [label="workclass= Local-gov <= 0.5\nentropy = 0.2852\nsamples = 342\nvalue = [17, 325]"] ;
399 -> 400 ;
401 [label="entropy = 0.2268\nsamples = 300\nvalue = [11, 289]"] ;
400 -> 401 ;
402 [label="entropy = 0.5917\nsamples = 42\nvalue = [6, 36]"] ;
400 -> 402 ;
403 [label="entropy = 0.0\nsamples = 1\nvalue = [1, 0]"] ;
399 -> 403 ;
404 [label="occupation= Adm-clerical <= 0.5\nentropy = 0.7793\nsamples = 26\nvalue = [6, 20]"] ;
398 -> 404 ;
405 [label="occupation= Prof-specialty <= 0.5\nentropy = 0.65\nsamples = 24\nvalue = [4, 20]"] ;
404 -> 405 ;
406 [label="entropy = 0.5586\nsamples = 23\nvalue = [3, 20]"] ;
405 -> 406 ;
407 [label="entropy = 0.0\nsamples = 1\nvalue = [1, 0]"] ;
405 -> 407 ;
408 [label="entropy = 0.0\nsamples = 2\nvalue = [2, 0]"] ;
404 -> 408 ;
409 [label="occupation=NA <= 0.5\nentropy = 0.8404\nsamples = 26\nvalue = [7, 19]"] ;
397 -> 409 ;
410 [label="relationship= Wife <= 0.5\nentropy = 0.795\nsamples = 25\nvalue = [6, 19]"] ;
409 -> 410 ;
411 [label="relationship= Husband <= 0.5\nentropy = 0.8813\nsamples = 20\nvalue = [6, 14]"] ;
410 -> 411 ;
412 [label="entropy = 0.0\nsamples = 1\nvalue = [1, 0]"] ;
411 -> 412 ;
413 [label="entropy = 0.8315\nsamples = 19\nvalue = [5, 14]"] ;
411 -> 413 ;
414 [label="entropy = 0.0\nsamples = 5\nvalue = [0, 5]"] ;
410 -> 414 ;
415 [label="entropy = 0.0\nsamples = 1\nvalue = [1, 0]"] ;
409 -> 415 ;
416 [label="age=2 <= 0.5\nentropy = 0.968\nsamples = 2610\nvalue = [1579, 1031]"] ;
364 -> 416 ;
417 [label="occupation= Other-service <= 0.5\nentropy = 0.8785\nsamples = 1414\nvalue = [993, 421]"] ;
416 -> 417 ;
418 [label="hours-per-week=0 <= 0.5\nentropy = 0.8957\nsamples = 1326\nvalue = [912, 414]"] ;
417 -> 418 ;
419 [label="capital-loss=0 <= 0.5\nentropy = 0.976\nsamples = 352\nvalue = [208, 144]"] ;
418 -> 419 ;
420 [label="occupation= Sales <= 0.5\nentropy = 0.6723\nsamples = 17\nvalue = [3, 14]"] ;
419 -> 420 ;
421 [label="entropy = 0.0\nsamples = 11\nvalue = [0, 11]"] ;
420 -> 421 ;
422 [label="entropy = 1.0\nsamples = 6\nvalue = [3, 3]"] ;
420 -> 422 ;
423 [label="workclass= Self-emp-inc <= 0.5\nentropy = 0.9635\nsamples = 335\nvalue = [205, 130]"] ;
419 -> 423 ;
424 [label="entropy = 0.9449\nsamples = 306\nvalue = [195, 111]"] ;
423 -> 424 ;
425 [label="entropy = 0.9294\nsamples = 29\nvalue = [10, 19]"] ;
423 -> 425 ;
426 [label="workclass= Federal-gov <= 0.5\nentropy = 0.8516\nsamples = 974\nvalue = [704, 270]"] ;
418 -> 426 ;
427 [label="fnlwgt=0 <= 0.5\nentropy = 0.8337\nsamples = 937\nvalue = [689, 248]"] ;
426 -> 427 ;
428 [label="entropy = 0.8612\nsamples = 774\nvalue = [554, 220]"] ;
427 -> 428 ;
429 [label="entropy = 0.6618\nsamples = 163\nvalue = [135, 28]"] ;
427 -> 429 ;
430 [label="occupation= Exec-managerial <= 0.5\nentropy = 0.974\nsamples = 37\nvalue = [15, 22]"] ;
426 -> 430 ;
431 [label="entropy = 0.9972\nsamples = 32\nvalue = [15, 17]"] ;
430 -> 431 ;
432 [label="entropy = 0.0\nsamples = 5\nvalue = [0, 5]"] ;
430 -> 432 ;
433 [label="capital-loss=2 <= 0.5\nentropy = 0.4006\nsamples = 88\nvalue = [81, 7]"] ;
417 -> 433 ;
434 [label="fnlwgt=1 <= 0.5\nentropy = 0.3621\nsamples = 87\nvalue = [81, 6]"] ;
433 -> 434 ;
435 [label="age=1 <= 0.5\nentropy = 0.4508\nsamples = 53\nvalue = [48, 5]"] ;
434 -> 435 ;
436 [label="entropy = 0.0\nsamples = 7\nvalue = [7, 0]"] ;
435 -> 436 ;
437 [label="entropy = 0.496\nsamples = 46\nvalue = [41, 5]"] ;
435 -> 437 ;
438 [label="workclass= Private <= 0.5\nentropy = 0.1914\nsamples = 34\nvalue = [33, 1]"] ;
434 -> 438 ;
439 [label="entropy = 0.0\nsamples = 13\nvalue = [13, 0]"] ;
438 -> 439 ;
440 [label="entropy = 0.2762\nsamples = 21\nvalue = [20, 1]"] ;
438 -> 440 ;
441 [label="entropy = 0.0\nsamples = 1\nvalue = [0, 1]"] ;
433 -> 441 ;
442 [label="occupation= Farming-fishing <= 0.5\nentropy = 0.9997\nsamples = 1196\nvalue = [586, 610]"] ;
416 -> 442 ;
443 [label="capital-loss=3 <= 0.5\nentropy = 0.9981\nsamples = 1149\nvalue = [545, 604]"] ;
442 -> 443 ;
444 [label="workclass= Self-emp-not-inc <= 0.5\nentropy = 0.9999\nsamples = 1079\nvalue = [532, 547]"] ;
443 -> 444 ;
445 [label="occupation= Exec-managerial <= 0.5\nentropy = 0.9979\nsamples = 960\nvalue = [454, 506]"] ;
444 -> 445 ;
446 [label="entropy = 1.0\nsamples = 799\nvalue = [401, 398]"] ;
445 -> 446 ;
447 [label="entropy = 0.9141\nsamples = 161\nvalue = [53, 108]"] ;
445 -> 447 ;
448 [label="occupation= Tech-support <= 0.5\nentropy = 0.9291\nsamples = 119\nvalue = [78, 41]"] ;
444 -> 448 ;
449 [label="entropy = 0.9063\nsamples = 115\nvalue = [78, 37]"] ;
448 -> 449 ;
450 [label="entropy = 0.0\nsamples = 4\nvalue = [0, 4]"] ;
448 -> 450 ;
451 [label="occupation= Other-service <= 0.5\nentropy = 0.6924\nsamples = 70\nvalue = [13, 57]"] ;
443 -> 451 ;
452 [label="fnlwgt=3 <= 0.5\nentropy = 0.6666\nsamples = 69\nvalue = [12, 57]"] ;
451 -> 452 ;
453 [label="entropy = 0.7088\nsamples = 62\nvalue = [12, 50]"] ;
452 -> 453 ;
454 [label="entropy = 0.0\nsamples = 7\nvalue = [0, 7]"] ;
452 -> 454 ;
455 [label="entropy = 0.0\nsamples = 1\nvalue = [1, 0]"] ;
451 -> 455 ;
456 [label="capital-loss=4 <= 0.5\nentropy = 0.551\nsamples = 47\nvalue = [41, 6]"] ;
442 -> 456 ;
457 [label="workclass= Self-emp-not-inc <= 0.5\nentropy = 0.496\nsamples = 46\nvalue = [41, 5]"] ;
456 -> 457 ;
458 [label="fnlwgt=2 <= 0.5\nentropy = 0.7025\nsamples = 21\nvalue = [17, 4]"] ;
457 -> 458 ;
459 [label="entropy = 0.7871\nsamples = 17\nvalue = [13, 4]"] ;
458 -> 459 ;
460 [label="entropy = 0.0\nsamples = 4\nvalue = [4, 0]"] ;
458 -> 460 ;
461 [label="fnlwgt=1 <= 0.5\nentropy = 0.2423\nsamples = 25\nvalue = [24, 1]"] ;
457 -> 461 ;
462 [label="entropy = 0.0\nsamples = 16\nvalue = [16, 0]"] ;
461 -> 462 ;
463 [label="entropy = 0.5033\nsamples = 9\nvalue = [8, 1]"] ;
461 -> 463 ;
464 [label="entropy = 0.0\nsamples = 1\nvalue = [0, 1]"] ;
456 -> 464 ;
465 [label="hours-per-week=0 <= 0.5\nentropy = 0.3818\nsamples = 619\nvalue = [573, 46]"] ;
363 -> 465 ;
466 [label="occupation= Exec-managerial <= 0.5\nentropy = 0.7015\nsamples = 100\nvalue = [81, 19]"] ;
465 -> 466 ;
467 [label="occupation= Craft-repair <= 0.5\nentropy = 0.6236\nsamples = 90\nvalue = [76, 14]"] ;
466 -> 467 ;
468 [label="fnlwgt=1 <= 0.5\nentropy = 0.5203\nsamples = 77\nvalue = [68, 9]"] ;
467 -> 468 ;
469 [label="occupation= Transport-moving <= 0.5\nentropy = 0.2762\nsamples = 42\nvalue = [40, 2]"] ;
468 -> 469 ;
470 [label="entropy = 0.0\nsamples = 34\nvalue = [34, 0]"] ;
469 -> 470 ;
471 [label="age=2 <= 0.5\nentropy = 0.8113\nsamples = 8\nvalue = [6, 2]"] ;
469 -> 471 ;
472 [label="entropy = 0.9183\nsamples = 3\nvalue = [1, 2]"] ;
471 -> 472 ;
473 [label="entropy = 0.0\nsamples = 5\nvalue = [5, 0]"] ;
471 -> 473 ;
474 [label="native-country=NA <= 0.5\nentropy = 0.7219\nsamples = 35\nvalue = [28, 7]"] ;
468 -> 474 ;
475 [label="occupation= Other-service <= 0.5\nentropy = 0.7838\nsamples = 30\nvalue = [23, 7]"] ;
474 -> 475 ;
476 [label="entropy = 0.8404\nsamples = 26\nvalue = [19, 7]"] ;
475 -> 476 ;
477 [label="entropy = 0.0\nsamples = 4\nvalue = [4, 0]"] ;
475 -> 477 ;
478 [label="entropy = 0.0\nsamples = 5\nvalue = [5, 0]"] ;
474 -> 478 ;
479 [label="workclass= Private <= 0.5\nentropy = 0.9612\nsamples = 13\nvalue = [8, 5]"] ;
467 -> 479 ;
480 [label="entropy = 0.0\nsamples = 4\nvalue = [0, 4]"] ;
479 -> 480 ;
481 [label="race= Black <= 0.5\nentropy = 0.5033\nsamples = 9\nvalue = [8, 1]"] ;
479 -> 481 ;
482 [label="entropy = 0.0\nsamples = 8\nvalue = [8, 0]"] ;
481 -> 482 ;
483 [label="entropy = 0.0\nsamples = 1\nvalue = [0, 1]"] ;
481 -> 483 ;
484 [label="workclass= Self-emp-not-inc <= 0.5\nentropy = 1.0\nsamples = 10\nvalue = [5, 5]"] ;
466 -> 484 ;
485 [label="education= 7th-8th <= 0.5\nentropy = 0.7219\nsamples = 5\nvalue = [4, 1]"] ;
484 -> 485 ;
486 [label="entropy = 0.0\nsamples = 1\nvalue = [0, 1]"] ;
485 -> 486 ;
487 [label="entropy = 0.0\nsamples = 4\nvalue = [4, 0]"] ;
485 -> 487 ;
488 [label="native-country= United-States <= 0.5\nentropy = 0.7219\nsamples = 5\nvalue = [1, 4]"] ;
484 -> 488 ;
489 [label="entropy = 1.0\nsamples = 2\nvalue = [1, 1]"] ;
488 -> 489 ;
490 [label="entropy = 0.0\nsamples = 3\nvalue = [0, 3]"] ;
488 -> 490 ;
491 [label="workclass= Self-emp-inc <= 0.5\nentropy = 0.2949\nsamples = 519\nvalue = [492, 27]"] ;
465 -> 491 ;
492 [label="occupation= Sales <= 0.5\nentropy = 0.2648\nsamples = 511\nvalue = [488, 23]"] ;
491 -> 492 ;
493 [label="occupation= Other-service <= 0.5\nentropy = 0.2356\nsamples = 493\nvalue = [474, 19]"] ;
492 -> 493 ;
494 [label="native-country=NA <= 0.5\nentropy = 0.263\nsamples = 426\nvalue = [407, 19]"] ;
493 -> 494 ;
495 [label="occupation= Exec-managerial <= 0.5\nentropy = 0.2449\nsamples = 419\nvalue = [402, 17]"] ;
494 -> 495 ;
496 [label="entropy = 0.226\nsamples = 411\nvalue = [396, 15]"] ;
495 -> 496 ;
497 [label="entropy = 0.8113\nsamples = 8\nvalue = [6, 2]"] ;
495 -> 497 ;
498 [label="race= White <= 0.5\nentropy = 0.8631\nsamples = 7\nvalue = [5, 2]"] ;
494 -> 498 ;
499 [label="entropy = 0.0\nsamples = 1\nvalue = [0, 1]"] ;
498 -> 499 ;
500 [label="entropy = 0.65\nsamples = 6\nvalue = [5, 1]"] ;
498 -> 500 ;
501 [label="entropy = 0.0\nsamples = 67\nvalue = [67, 0]"] ;
493 -> 501 ;
502 [label="age=3 <= 0.5\nentropy = 0.7642\nsamples = 18\nvalue = [14, 4]"] ;
492 -> 502 ;
503 [label="fnlwgt=2 <= 0.5\nentropy = 0.3912\nsamples = 13\nvalue = [12, 1]"] ;
502 -> 503 ;
504 [label="entropy = 0.0\nsamples = 9\nvalue = [9, 0]"] ;
503 -> 504 ;
505 [label="native-country= United-States <= 0.5\nentropy = 0.8113\nsamples = 4\nvalue = [3, 1]"] ;
503 -> 505 ;
506 [label="entropy = 0.0\nsamples = 3\nvalue = [3, 0]"] ;
505 -> 506 ;
507 [label="entropy = 0.0\nsamples = 1\nvalue = [0, 1]"] ;
505 -> 507 ;
508 [label="education= 5th-6th <= 0.5\nentropy = 0.971\nsamples = 5\nvalue = [2, 3]"] ;
502 -> 508 ;
509 [label="workclass= Self-emp-not-inc <= 0.5\nentropy = 1.0\nsamples = 4\nvalue = [2, 2]"] ;
508 -> 509 ;
510 [label="entropy = 1.0\nsamples = 2\nvalue = [1, 1]"] ;
509 -> 510 ;
511 [label="entropy = 1.0\nsamples = 2\nvalue = [1, 1]"] ;
509 -> 511 ;
512 [label="entropy = 0.0\nsamples = 1\nvalue = [0, 1]"] ;
508 -> 512 ;
513 [label="fnlwgt=1 <= 0.5\nentropy = 1.0\nsamples = 8\nvalue = [4, 4]"] ;
491 -> 513 ;
514 [label="native-country= Mexico <= 0.5\nentropy = 0.8113\nsamples = 4\nvalue = [3, 1]"] ;
513 -> 514 ;
515 [label="entropy = 0.0\nsamples = 3\nvalue = [3, 0]"] ;
514 -> 515 ;
516 [label="entropy = 0.0\nsamples = 1\nvalue = [0, 1]"] ;
514 -> 516 ;
517 [label="occupation= Farming-fishing <= 0.5\nentropy = 0.8113\nsamples = 4\nvalue = [1, 3]"] ;
513 -> 517 ;
518 [label="entropy = 0.0\nsamples = 3\nvalue = [0, 3]"] ;
517 -> 518 ;
519 [label="entropy = 0.0\nsamples = 1\nvalue = [1, 0]"] ;
517 -> 519 ;
520 [label="age=2 <= 0.5\nentropy = 0.8154\nsamples = 5641\nvalue = [4216, 1425]"] ;
362 -> 520 ;
521 [label="capital-loss=3 <= 0.5\nentropy = 0.7024\nsamples = 3198\nvalue = [2589, 609]"] ;
520 -> 521 ;
522 [label="education= HS-grad <= 0.5\nentropy = 0.6752\nsamples = 3105\nvalue = [2553, 552]"] ;
521 -> 522 ;
523 [label="native-country= United-States <= 0.5\nentropy = 0.373\nsamples = 598\nvalue = [555, 43]"] ;
522 -> 523 ;
524 [label="native-country= Trinadad&Tobago <= 0.5\nentropy = 0.0941\nsamples = 83\nvalue = [82, 1]"] ;
523 -> 524 ;
525 [label="entropy = 0.0\nsamples = 81\nvalue = [81, 0]"] ;
524 -> 525 ;
526 [label="fnlwgt=3 <= 0.5\nentropy = 1.0\nsamples = 2\nvalue = [1, 1]"] ;
524 -> 526 ;
527 [label="entropy = 0.0\nsamples = 1\nvalue = [0, 1]"] ;
526 -> 527 ;
528 [label="entropy = 0.0\nsamples = 1\nvalue = [1, 0]"] ;
526 -> 528 ;
529 [label="hours-per-week=0 <= 0.5\nentropy = 0.4076\nsamples = 515\nvalue = [473, 42]"] ;
523 -> 529 ;
530 [label="relationship= Not-in-family <= 0.5\nentropy = 0.6451\nsamples = 79\nvalue = [66, 13]"] ;
529 -> 530 ;
531 [label="occupation= Farming-fishing <= 0.5\nentropy = 0.6194\nsamples = 78\nvalue = [66, 12]"] ;
530 -> 531 ;
532 [label="entropy = 0.661\nsamples = 70\nvalue = [58, 12]"] ;
531 -> 532 ;
533 [label="entropy = 0.0\nsamples = 8\nvalue = [8, 0]"] ;
531 -> 533 ;
534 [label="entropy = 0.0\nsamples = 1\nvalue = [0, 1]"] ;
530 -> 534 ;
535 [label="occupation=NA <= 0.5\nentropy = 0.3528\nsamples = 436\nvalue = [407, 29]"] ;
529 -> 535 ;
536 [label="occupation= Tech-support <= 0.5\nentropy = 0.3779\nsamples = 396\nvalue = [367, 29]"] ;
535 -> 536 ;
537 [label="entropy = 0.3617\nsamples = 392\nvalue = [365, 27]"] ;
536 -> 537 ;
538 [label="entropy = 1.0\nsamples = 4\nvalue = [2, 2]"] ;
536 -> 538 ;
539 [label="entropy = 0.0\nsamples = 40\nvalue = [40, 0]"] ;
535 -> 539 ;
540 [label="occupation= Exec-managerial <= 0.5\nentropy = 0.7279\nsamples = 2507\nvalue = [1998, 509]"] ;
522 -> 540 ;
541 [label="hours-per-week=1 <= 0.5\nentropy = 0.6949\nsamples = 2301\nvalue = [1871, 430]"] ;
540 -> 541 ;
542 [label="race= Black <= 0.5\nentropy = 0.6475\nsamples = 1854\nvalue = [1547, 307]"] ;
541 -> 542 ;
543 [label="occupation= Farming-fishing <= 0.5\nentropy = 0.6701\nsamples = 1721\nvalue = [1419, 302]"] ;
542 -> 543 ;
544 [label="entropy = 0.6832\nsamples = 1659\nvalue = [1358, 301]"] ;
543 -> 544 ;
545 [label="entropy = 0.1191\nsamples = 62\nvalue = [61, 1]"] ;
543 -> 545 ;
546 [label="fnlwgt=3 <= 0.5\nentropy = 0.2311\nsamples = 133\nvalue = [128, 5]"] ;
542 -> 546 ;
547 [label="entropy = 0.2686\nsamples = 109\nvalue = [104, 5]"] ;
546 -> 547 ;
548 [label="entropy = 0.0\nsamples = 24\nvalue = [24, 0]"] ;
546 -> 548 ;
549 [label="occupation= Farming-fishing <= 0.5\nentropy = 0.8488\nsamples = 447\nvalue = [324, 123]"] ;
541 -> 549 ;
550 [label="capital-loss=2 <= 0.5\nentropy = 0.8719\nsamples = 400\nvalue = [283, 117]"] ;
549 -> 550 ;
551 [label="entropy = 0.8674\nsamples = 398\nvalue = [283, 115]"] ;
550 -> 551 ;
552 [label="entropy = 0.0\nsamples = 2\nvalue = [0, 2]"] ;
550 -> 552 ;
553 [label="fnlwgt=2 <= 0.5\nentropy = 0.551\nsamples = 47\nvalue = [41, 6]"] ;
549 -> 553 ;
554 [label="entropy = 0.6006\nsamples = 41\nvalue = [35, 6]"] ;
553 -> 554 ;
555 [label="entropy = 0.0\nsamples = 6\nvalue = [6, 0]"] ;
553 -> 555 ;
556 [label="workclass= Self-emp-not-inc <= 0.5\nentropy = 0.9605\nsamples = 206\nvalue = [127, 79]"] ;
540 -> 556 ;
557 [label="workclass= Self-emp-inc <= 0.5\nentropy = 0.9898\nsamples = 168\nvalue = [94, 74]"] ;
556 -> 557 ;
558 [label="capital-loss=0 <= 0.5\nentropy = 0.971\nsamples = 130\nvalue = [78, 52]"] ;
557 -> 558 ;
559 [label="entropy = 0.0\nsamples = 2\nvalue = [0, 2]"] ;
558 -> 559 ;
560 [label="entropy = 0.9652\nsamples = 128\nvalue = [78, 50]"] ;
558 -> 560 ;
561 [label="fnlwgt=1 <= 0.5\nentropy = 0.9819\nsamples = 38\nvalue = [16, 22]"] ;
557 -> 561 ;
562 [label="entropy = 0.7642\nsamples = 18\nvalue = [4, 14]"] ;
561 -> 562 ;
563 [label="entropy = 0.971\nsamples = 20\nvalue = [12, 8]"] ;
561 -> 563 ;
564 [label="age=3 <= 0.5\nentropy = 0.5618\nsamples = 38\nvalue = [33, 5]"] ;
556 -> 564 ;
565 [label="fnlwgt=2 <= 0.5\nentropy = 0.3712\nsamples = 28\nvalue = [26, 2]"] ;
564 -> 565 ;
566 [label="entropy = 0.2423\nsamples = 25\nvalue = [24, 1]"] ;
565 -> 566 ;
567 [label="entropy = 0.9183\nsamples = 3\nvalue = [2, 1]"] ;
565 -> 567 ;
568 [label="hours-per-week=0 <= 0.5\nentropy = 0.8813\nsamples = 10\nvalue = [7, 3]"] ;
564 -> 568 ;
569 [label="entropy = 0.0\nsamples = 1\nvalue = [0, 1]"] ;
568 -> 569 ;
570 [label="entropy = 0.7642\nsamples = 9\nvalue = [7, 2]"] ;
568 -> 570 ;
571 [label="occupation= Handlers-cleaners <= 0.5\nentropy = 0.9629\nsamples = 93\nvalue = [36, 57]"] ;
521 -> 571 ;
572 [label="occupation= Other-service <= 0.5\nentropy = 0.9534\nsamples = 91\nvalue = [34, 57]"] ;
571 -> 572 ;
573 [label="education= 9th <= 0.5\nentropy = 0.9423\nsamples = 89\nvalue = [32, 57]"] ;
572 -> 573 ;
574 [label="workclass= Private <= 0.5\nentropy = 0.9294\nsamples = 87\nvalue = [30, 57]"] ;
573 -> 574 ;
575 [label="occupation= Adm-clerical <= 0.5\nentropy = 0.7219\nsamples = 30\nvalue = [6, 24]"] ;
574 -> 575 ;
576 [label="entropy = 0.5917\nsamples = 28\nvalue = [4, 24]"] ;
575 -> 576 ;
577 [label="entropy = 0.0\nsamples = 2\nvalue = [2, 0]"] ;
575 -> 577 ;
578 [label="race= Black <= 0.5\nentropy = 0.9819\nsamples = 57\nvalue = [24, 33]"] ;
574 -> 578 ;
579 [label="entropy = 0.9911\nsamples = 54\nvalue = [24, 30]"] ;
578 -> 579 ;
580 [label="entropy = 0.0\nsamples = 3\nvalue = [0, 3]"] ;
578 -> 580 ;
581 [label="entropy = 0.0\nsamples = 2\nvalue = [2, 0]"] ;
573 -> 581 ;
582 [label="entropy = 0.0\nsamples = 2\nvalue = [2, 0]"] ;
572 -> 582 ;
583 [label="entropy = 0.0\nsamples = 2\nvalue = [2, 0]"] ;
571 -> 583 ;
584 [label="education= HS-grad <= 0.5\nentropy = 0.919\nsamples = 2443\nvalue = [1627, 816]"] ;
520 -> 584 ;
585 [label="capital-loss=3 <= 0.5\nentropy = 0.6643\nsamples = 428\nvalue = [354, 74]"] ;
584 -> 585 ;
586 [label="occupation= Prof-specialty <= 0.5\nentropy = 0.635\nsamples = 418\nvalue = [351, 67]"] ;
585 -> 586 ;
587 [label="fnlwgt=2 <= 0.5\nentropy = 0.6253\nsamples = 416\nvalue = [351, 65]"] ;
586 -> 587 ;
588 [label="workclass= Private <= 0.5\nentropy = 0.6762\nsamples = 331\nvalue = [272, 59]"] ;
587 -> 588 ;
589 [label="native-country= Yugoslavia <= 0.5\nentropy = 0.5033\nsamples = 90\nvalue = [80, 10]"] ;
588 -> 589 ;
590 [label="entropy = 0.4725\nsamples = 89\nvalue = [80, 9]"] ;
589 -> 590 ;
591 [label="entropy = 0.0\nsamples = 1\nvalue = [0, 1]"] ;
589 -> 591 ;
592 [label="occupation= Exec-managerial <= 0.5\nentropy = 0.7285\nsamples = 241\nvalue = [192, 49]"] ;
588 -> 592 ;
593 [label="entropy = 0.7025\nsamples = 231\nvalue = [187, 44]"] ;
592 -> 593 ;
594 [label="entropy = 1.0\nsamples = 10\nvalue = [5, 5]"] ;
592 -> 594 ;
595 [label="education= 11th <= 0.5\nentropy = 0.3681\nsamples = 85\nvalue = [79, 6]"] ;
587 -> 595 ;
596 [label="workclass= Private <= 0.5\nentropy = 0.4855\nsamples = 57\nvalue = [51, 6]"] ;
595 -> 596 ;
597 [label="entropy = 0.0\nsamples = 16\nvalue = [16, 0]"] ;
596 -> 597 ;
598 [label="entropy = 0.6006\nsamples = 41\nvalue = [35, 6]"] ;
596 -> 598 ;
599 [label="entropy = 0.0\nsamples = 28\nvalue = [28, 0]"] ;
595 -> 599 ;
600 [label="entropy = 0.0\nsamples = 2\nvalue = [0, 2]"] ;
586 -> 600 ;
601 [label="education= 12th <= 0.5\nentropy = 0.8813\nsamples = 10\nvalue = [3, 7]"] ;
585 -> 601 ;
602 [label="occupation= Other-service <= 0.5\nentropy = 0.5436\nsamples = 8\nvalue = [1, 7]"] ;
601 -> 602 ;
603 [label="entropy = 0.0\nsamples = 6\nvalue = [0, 6]"] ;
602 -> 603 ;
604 [label="race= White <= 0.5\nentropy = 1.0\nsamples = 2\nvalue = [1, 1]"] ;
602 -> 604 ;
605 [label="entropy = 0.0\nsamples = 1\nvalue = [1, 0]"] ;
604 -> 605 ;
606 [label="entropy = 0.0\nsamples = 1\nvalue = [0, 1]"] ;
604 -> 606 ;
607 [label="entropy = 0.0\nsamples = 2\nvalue = [2, 0]"] ;
601 -> 607 ;
608 [label="capital-loss=3 <= 0.5\nentropy = 0.9493\nsamples = 2015\nvalue = [1273, 742]"] ;
584 -> 608 ;
609 [label="workclass= Federal-gov <= 0.5\nentropy = 0.9364\nsamples = 1931\nvalue = [1250, 681]"] ;
608 -> 609 ;
610 [label="occupation= Other-service <= 0.5\nentropy = 0.9258\nsamples = 1865\nvalue = [1229, 636]"] ;
609 -> 610 ;
611 [label="workclass= Self-emp-not-inc <= 0.5\nentropy = 0.938\nsamples = 1746\nvalue = [1127, 619]"] ;
610 -> 611 ;
612 [label="occupation= Exec-managerial <= 0.5\nentropy = 0.9536\nsamples = 1506\nvalue = [943, 563]"] ;
611 -> 612 ;
613 [label="entropy = 0.9397\nsamples = 1358\nvalue = [874, 484]"] ;
612 -> 613 ;
614 [label="entropy = 0.9967\nsamples = 148\nvalue = [69, 79]"] ;
612 -> 614 ;
615 [label="occupation= Craft-repair <= 0.5\nentropy = 0.7838\nsamples = 240\nvalue = [184, 56]"] ;
611 -> 615 ;
616 [label="entropy = 0.835\nsamples = 177\nvalue = [130, 47]"] ;
615 -> 616 ;
617 [label="entropy = 0.5917\nsamples = 63\nvalue = [54, 9]"] ;
615 -> 617 ;
618 [label="fnlwgt=3 <= 0.5\nentropy = 0.5917\nsamples = 119\nvalue = [102, 17]"] ;
610 -> 618 ;
619 [label="fnlwgt=0 <= 0.5\nentropy = 0.6352\nsamples = 106\nvalue = [89, 17]"] ;
618 -> 619 ;
620 [label="entropy = 0.7121\nsamples = 82\nvalue = [66, 16]"] ;
619 -> 620 ;
621 [label="entropy = 0.2499\nsamples = 24\nvalue = [23, 1]"] ;
619 -> 621 ;
622 [label="entropy = 0.0\nsamples = 13\nvalue = [13, 0]"] ;
618 -> 622 ;
623 [label="race= Amer-Indian-Eskimo <= 0.5\nentropy = 0.9024\nsamples = 66\nvalue = [21, 45]"] ;
609 -> 623 ;
624 [label="occupation= Other-service <= 0.5\nentropy = 0.8774\nsamples = 64\nvalue = [19, 45]"] ;
623 -> 624 ;
625 [label="native-country=NA <= 0.5\nentropy = 0.8631\nsamples = 63\nvalue = [18, 45]"] ;
624 -> 625 ;
626 [label="entropy = 0.8474\nsamples = 62\nvalue = [17, 45]"] ;
625 -> 626 ;
627 [label="entropy = 0.0\nsamples = 1\nvalue = [1, 0]"] ;
625 -> 627 ;
628 [label="entropy = 0.0\nsamples = 1\nvalue = [1, 0]"] ;
624 -> 628 ;
629 [label="entropy = 0.0\nsamples = 2\nvalue = [2, 0]"] ;
623 -> 629 ;
630 [label="occupation= Farming-fishing <= 0.5\nentropy = 0.8469\nsamples = 84\nvalue = [23, 61]"] ;
608 -> 630 ;
631 [label="fnlwgt=3 <= 0.5\nentropy = 0.7959\nsamples = 79\nvalue = [19, 60]"] ;
630 -> 631 ;
632 [label="occupation= Tech-support <= 0.5\nentropy = 0.838\nsamples = 71\nvalue = [19, 52]"] ;
631 -> 632 ;
633 [label="sex= Male <= 0.5\nentropy = 0.866\nsamples = 66\nvalue = [19, 47]"] ;
632 -> 633 ;
634 [label="entropy = 0.0\nsamples = 2\nvalue = [2, 0]"] ;
633 -> 634 ;
635 [label="entropy = 0.8351\nsamples = 64\nvalue = [17, 47]"] ;
633 -> 635 ;
636 [label="entropy = 0.0\nsamples = 5\nvalue = [0, 5]"] ;
632 -> 636 ;
637 [label="entropy = 0.0\nsamples = 8\nvalue = [0, 8]"] ;
631 -> 637 ;
638 [label="fnlwgt=0 <= 0.5\nentropy = 0.7219\nsamples = 5\nvalue = [4, 1]"] ;
630 -> 638 ;
639 [label="entropy = 0.0\nsamples = 4\nvalue = [4, 0]"] ;
638 -> 639 ;
640 [label="entropy = 0.0\nsamples = 1\nvalue = [0, 1]"] ;
638 -> 640 ;
}